<?xml version="1.0"?>
<opencv_storage>
<cascade>
  <stageType>BOOST</stageType>
  <featureType>HAAR</featureType>
  <height>50</height>
  <width>40</width>
  <stageParams>
    <boostType>GAB</boostType>
    <minHitRate>9.9900001287460327e-01</minHitRate>
    <maxFalseAlarm>5.0000000000000000e-01</maxFalseAlarm>
    <weightTrimRate>9.4999999999999996e-01</weightTrimRate>
    <maxDepth>1</maxDepth>
    <maxWeakCount>100</maxWeakCount></stageParams>
  <featureParams>
    <maxCatCount>0</maxCatCount>
    <featSize>1</featSize>
    <mode>ALL</mode></featureParams>
  <stageNum>8</stageNum>
  <stages>
    <!-- stage 0 -->
    <_>
      <maxWeakCount>1</maxWeakCount>
      <stageThreshold>9.7260272502899170e-01</stageThreshold>
      <weakClassifiers>
        <_>
          <internalNodes>
            0 -1 2 1.8084450066089630e-01</internalNodes>
          <leafValues>
            -1. 9.7260272502899170e-01</leafValues></_></weakClassifiers></_>
    <!-- stage 1 -->
    <_>
      <maxWeakCount>1</maxWeakCount>
      <stageThreshold>9.7260272502899170e-01</stageThreshold>
      <weakClassifiers>
        <_>
          <internalNodes>
            0 -1 11 2.2067511454224586e-02</internalNodes>
          <leafValues>
            -1. 9.7260272502899170e-01</leafValues></_></weakClassifiers></_>
    <!-- stage 2 -->
    <_>
      <maxWeakCount>2</maxWeakCount>
      <stageThreshold>4.9781605601310730e-02</stageThreshold>
      <weakClassifiers>
        <_>
          <internalNodes>
            0 -1 5 -1.4446208253502846e-02</internalNodes>
          <leafValues>
            1. -9.0476191043853760e-01</leafValues></_>
        <_>
          <internalNodes>
            0 -1 3 4.6305138617753983e-02</internalNodes>
          <leafValues>
            -8.9454466104507446e-01 9.5454353094100952e-01</leafValues></_></weakClassifiers></_>
    <!-- stage 3 -->
    <_>
      <maxWeakCount>2</maxWeakCount>
      <stageThreshold>-6.7700266838073730e-02</stageThreshold>
      <weakClassifiers>
        <_>
          <internalNodes>
            0 -1 7 5.0016236491501331e-03</internalNodes>
          <leafValues>
            -9.3548387289047241e-01 7.4683547019958496e-01</leafValues></_>
        <_>
          <internalNodes>
            0 -1 0 -8.5141211748123169e-03</internalNodes>
          <leafValues>
            9.5571196079254150e-01 -8.1453567743301392e-01</leafValues></_></weakClassifiers></_>
    <!-- stage 4 -->
    <_>
      <maxWeakCount>2</maxWeakCount>
      <stageThreshold>7.0307247340679169e-02</stageThreshold>
      <weakClassifiers>
        <_>
          <internalNodes>
            0 -1 1 -2.0714471116662025e-02</internalNodes>
          <leafValues>
            9.6721309423446655e-01 -7.8378379344940186e-01</leafValues></_>
        <_>
          <internalNodes>
            0 -1 8 -4.0560206398367882e-03</internalNodes>
          <leafValues>
            8.5409104824066162e-01 -8.8640153408050537e-01</leafValues></_></weakClassifiers></_>
    <!-- stage 5 -->
    <_>
      <maxWeakCount>1</maxWeakCount>
      <stageThreshold>6.7441862821578979e-01</stageThreshold>
      <weakClassifiers>
        <_>
          <internalNodes>
            0 -1 6 1.1454550549387932e-02</internalNodes>
          <leafValues>
            -1. 6.7441862821578979e-01</leafValues></_></weakClassifiers></_>
    <!-- stage 6 -->
    <_>
      <maxWeakCount>2</maxWeakCount>
      <stageThreshold>-2.6218723505735397e-02</stageThreshold>
      <weakClassifiers>
        <_>
          <internalNodes>
            0 -1 10 3.8293739780783653e-03</internalNodes>
          <leafValues>
            -9.2000001668930054e-01 8.8888889551162720e-01</leafValues></_>
        <_>
          <internalNodes>
            0 -1 9 1.9457109272480011e-02</internalNodes>
          <leafValues>
            -8.9820092916488647e-01 8.9378130435943604e-01</leafValues></_></weakClassifiers></_>
    <!-- stage 7 -->
    <_>
      <maxWeakCount>1</maxWeakCount>
      <stageThreshold>8.0000001192092896e-01</stageThreshold>
      <weakClassifiers>
        <_>
          <internalNodes>
            0 -1 4 1.9306266307830811e-01</internalNodes>
          <leafValues>
            -1. 8.0000001192092896e-01</leafValues></_></weakClassifiers></_></stages>
  <features>
    <_>
      <rects>
        <_>
          0 0 21 6 -1.</_>
        <_>
          0 3 21 3 2.</_></rects>
      <tilted>0</tilted></_>
    <_>
      <rects>
        <_>
          0 3 24 5 -1.</_>
        <_>
          12 3 12 5 2.</_></rects>
      <tilted>0</tilted></_>
    <_>
      <rects>
        <_>
          0 19 26 21 -1.</_>
        <_>
          13 19 13 21 2.</_></rects>
      <tilted>0</tilted></_>
    <_>
      <rects>
        <_>
          1 40 38 10 -1.</_>
        <_>
          1 45 38 5 2.</_></rects>
      <tilted>0</tilted></_>
    <_>
      <rects>
        <_>
          4 13 24 28 -1.</_>
        <_>
          16 13 12 28 2.</_></rects>
      <tilted>0</tilted></_>
    <_>
      <rects>
        <_>
          5 15 20 14 -1.</_>
        <_>
          5 15 10 7 2.</_>
        <_>
          15 22 10 7 2.</_></rects>
      <tilted>0</tilted></_>
    <_>
      <rects>
        <_>
          8 14 4 20 -1.</_>
        <_>
          10 14 2 20 2.</_></rects>
      <tilted>0</tilted></_>
    <_>
      <rects>
        <_>
          9 26 16 16 -1.</_>
        <_>
          9 26 8 8 2.</_>
        <_>
          17 34 8 8 2.</_></rects>
      <tilted>0</tilted></_>
    <_>
      <rects>
        <_>
          13 24 9 7 -1.</_>
        <_>
          16 24 3 7 3.</_></rects>
      <tilted>0</tilted></_>
    <_>
      <rects>
        <_>
          26 17 8 12 -1.</_>
        <_>
          22 21 8 4 3.</_></rects>
      <tilted>1</tilted></_>
    <_>
      <rects>
        <_>
          28 38 4 8 -1.</_>
        <_>
          28 42 4 4 2.</_></rects>
      <tilted>0</tilted></_>
    <_>
      <rects>
        <_>
          31 22 8 7 -1.</_>
        <_>
          31 22 4 7 2.</_></rects>
      <tilted>1</tilted></_></features></cascade>
</opencv_storage>
